digraph Tree {
node [shape=box, style="filled, rounded", color="black", fontname="helvetica"] ;
edge [fontname="helvetica"] ;
0 [label="Coughing of Blood <= 5.5\ngini = 0.666\nsamples = 800\nvalue = [248, 269, 283]\nclass = 2", fillcolor="#fcfafe"] ;
1 [label="Wheezing <= 4.5\ngini = 0.518\nsamples = 477\nvalue = [231, 237, 9]\nclass = 1", fillcolor="#fafefc"] ;
0 -> 1 [labeldistance=2.5, labelangle=45, headlabel="True"] ;
2 [label="Snoring <= 4.5\ngini = 0.366\nsamples = 300\nvalue = [231, 60, 9]\nclass = 0", fillcolor="#eca572"] ;
1 -> 2 ;
3 [label="Obesity <= 4.5\ngini = 0.192\nsamples = 258\nvalue = [231, 18, 9]\nclass = 0", fillcolor="#e88f4f"] ;
2 -> 3 ;
4 [label="gini = 0.0\nsamples = 231\nvalue = [231, 0, 0]\nclass = 0", fillcolor="#e58139"] ;
3 -> 4 ;
5 [label="Weight Loss <= 5.5\ngini = 0.444\nsamples = 27\nvalue = [0, 18, 9]\nclass = 1", fillcolor="#9cf2c0"] ;
3 -> 5 ;
6 [label="gini = 0.0\nsamples = 18\nvalue = [0, 18, 0]\nclass = 1", fillcolor="#39e581"] ;
5 -> 6 ;
7 [label="gini = 0.0\nsamples = 9\nvalue = [0, 0, 9]\nclass = 2", fillcolor="#8139e5"] ;
5 -> 7 ;
8 [label="gini = 0.0\nsamples = 42\nvalue = [0, 42, 0]\nclass = 1", fillcolor="#39e581"] ;
2 -> 8 ;
9 [label="gini = 0.0\nsamples = 177\nvalue = [0, 177, 0]\nclass = 1", fillcolor="#39e581"] ;
1 -> 9 ;
10 [label="OccuPational Hazards <= 7.5\ngini = 0.268\nsamples = 323\nvalue = [17, 32, 274]\nclass = 2", fillcolor="#965ae9"] ;
0 -> 10 [labeldistance=2.5, labelangle=-45, headlabel="False"] ;
11 [label="Obesity <= 2.5\ngini = 0.162\nsamples = 300\nvalue = [17, 9, 274]\nclass = 2", fillcolor="#8d4be7"] ;
10 -> 11 ;
12 [label="gini = 0.0\nsamples = 17\nvalue = [17, 0, 0]\nclass = 0", fillcolor="#e58139"] ;
11 -> 12 ;
13 [label="Clubbing of Finger Nails <= 1.5\ngini = 0.062\nsamples = 283\nvalue = [0, 9, 274]\nclass = 2", fillcolor="#8540e6"] ;
11 -> 13 ;
14 [label="gini = 0.0\nsamples = 9\nvalue = [0, 9, 0]\nclass = 1", fillcolor="#39e581"] ;
13 -> 14 ;
15 [label="gini = 0.0\nsamples = 274\nvalue = [0, 0, 274]\nclass = 2", fillcolor="#8139e5"] ;
13 -> 15 ;
16 [label="gini = 0.0\nsamples = 23\nvalue = [0, 23, 0]\nclass = 1", fillcolor="#39e581"] ;
10 -> 16 ;
}